FANN_FLO_2.1
num_layers=3
learning_rate=0.700000
connection_rate=1.000000
network_type=0
learning_momentum=0.000000
training_algorithm=2
train_error_function=1
train_stop_function=0
cascade_output_change_fraction=0.010000
quickprop_decay=-0.000100
quickprop_mu=1.750000
rprop_increase_factor=1.200000
rprop_decrease_factor=0.500000
rprop_delta_min=0.000000
rprop_delta_max=50.000000
rprop_delta_zero=0.100000
cascade_output_stagnation_epochs=12
cascade_candidate_change_fraction=0.010000
cascade_candidate_stagnation_epochs=12
cascade_max_out_epochs=150
cascade_min_out_epochs=50
cascade_max_cand_epochs=150
cascade_min_cand_epochs=50
cascade_num_candidate_groups=2
bit_fail_limit=3.49999994039535522461e-01
cascade_candidate_limit=1.00000000000000000000e+03
cascade_weight_multiplier=4.00000005960464477539e-01
cascade_activation_functions_count=10
cascade_activation_functions=3 5 7 8 10 11 14 15 16 17 
cascade_activation_steepnesses_count=4
cascade_activation_steepnesses=2.50000000000000000000e-01 5.00000000000000000000e-01 7.50000000000000000000e-01 1.00000000000000000000e+00 
layer_sizes=26 13 2 
scale_included=1
scale_mean_in=1328.371582 4493.896973 1232.548950 886.182007 206.539124 45.763477 94.064346 1812.808105 630.028381 571.653931 468.061462 103.629562 0.267800 0.337067 0.389784 0.966831 0.094581 0.000711 0.164793 0.101662 0.107431 0.112040 0.107390 0.317267 0.022064 
scale_deviation_in=527.651489 2131.007568 651.639709 460.582001 118.995216 39.131798 102.012329 1026.753540 375.572021 359.375854 316.019501 129.286865 0.024978 0.032597 0.059758 0.028207 0.173601 0.005050 0.340959 0.237392 0.242814 0.239331 0.251891 0.389926 0.066022 
scale_new_min_in=0.000000 0.000000 0.000000 0.000000 0.000000 0.000000 0.000000 0.000000 0.000000 0.000000 0.000000 0.000000 0.000000 0.000000 0.000000 0.000000 0.000000 0.000000 0.000000 0.000000 0.000000 0.000000 0.000000 0.000000 0.000000 
scale_factor_in=0.500000 0.500000 0.500000 0.500000 0.500000 0.500000 0.500000 0.500000 0.500000 0.500000 0.500000 0.500000 0.500000 0.500000 0.500000 0.500000 0.500000 0.500000 0.500000 0.500000 0.500000 0.500000 0.500000 0.500000 0.500000 
scale_mean_out=0.000000 
scale_deviation_out=1.000000 
scale_new_min_out=-1.000000 
scale_factor_out=1.000000 
neurons (num_inputs, activation_function, activation_steepness)=(0, 0, 0.00000000000000000000e+00) (0, 0, 0.00000000000000000000e+00) (0, 0, 0.00000000000000000000e+00) (0, 0, 0.00000000000000000000e+00) (0, 0, 0.00000000000000000000e+00) (0, 0, 0.00000000000000000000e+00) (0, 0, 0.00000000000000000000e+00) (0, 0, 0.00000000000000000000e+00) (0, 0, 0.00000000000000000000e+00) (0, 0, 0.00000000000000000000e+00) (0, 0, 0.00000000000000000000e+00) (0, 0, 0.00000000000000000000e+00) (0, 0, 0.00000000000000000000e+00) (0, 0, 0.00000000000000000000e+00) (0, 0, 0.00000000000000000000e+00) (0, 0, 0.00000000000000000000e+00) (0, 0, 0.00000000000000000000e+00) (0, 0, 0.00000000000000000000e+00) (0, 0, 0.00000000000000000000e+00) (0, 0, 0.00000000000000000000e+00) (0, 0, 0.00000000000000000000e+00) (0, 0, 0.00000000000000000000e+00) (0, 0, 0.00000000000000000000e+00) (0, 0, 0.00000000000000000000e+00) (0, 0, 0.00000000000000000000e+00) (0, 0, 0.00000000000000000000e+00) (26, 10, 5.00000000000000000000e-01) (26, 10, 5.00000000000000000000e-01) (26, 10, 5.00000000000000000000e-01) (26, 10, 5.00000000000000000000e-01) (26, 10, 5.00000000000000000000e-01) (26, 10, 5.00000000000000000000e-01) (26, 10, 5.00000000000000000000e-01) (26, 10, 5.00000000000000000000e-01) (26, 10, 5.00000000000000000000e-01) (26, 10, 5.00000000000000000000e-01) (26, 10, 5.00000000000000000000e-01) (26, 10, 5.00000000000000000000e-01) (0, 10, 0.00000000000000000000e+00) (13, 3, 5.00000000000000000000e-01) (0, 3, 0.00000000000000000000e+00) 
connections (connected_to_neuron, weight)=(0, 9.76867005228996276855e-02) (1, 1.06001406908035278320e-01) (2, 6.03877127170562744141e-01) (3, 3.82145714759826660156e+00) (4, 1.30604255199432373047e+00) (5, -7.98898458480834960938e+00) (6, -6.06733597815036773682e-02) (7, -3.61469149589538574219e-01) (8, -7.62368619441986083984e-01) (9, -1.12057554721832275391e+00) (10, -1.30613458156585693359e+00) (11, -7.09167003631591796875e+00) (12, 1.11956214904785156250e+00) (13, -1.61190032958984375000e+00) (14, -3.83718919754028320312e+00) (15, 4.46674299240112304688e+00) (16, -1.73058807849884033203e+00) (17, 1.39765644073486328125e+00) (18, -1.01323865354061126709e-01) (19, 1.47038865089416503906e+00) (20, 5.81996536254882812500e+00) (21, -7.22134053707122802734e-01) (22, 5.11853933334350585938e+00) (23, -2.30155086517333984375e+00) (24, 3.51434779167175292969e+00) (25, 2.57916736602783203125e+00) (0, -4.89970594644546508789e-01) (1, -5.04189074039459228516e-01) (2, -8.77584397792816162109e-01) (3, -2.79437923431396484375e+00) (4, -1.57984226942062377930e-01) (5, 6.61350190639495849609e-01) (6, -1.27676796913146972656e+00) (7, -1.22195255756378173828e+00) (8, -2.25310373306274414062e+00) (9, -1.03459715843200683594e-01) (10, 2.31822752952575683594e+00) (11, -1.71828413009643554688e+00) (12, -2.15418171882629394531e+00) (13, 5.88317537307739257812e+00) (14, 1.23481786251068115234e+00) (15, 1.03532522916793823242e-01) (16, 6.73039007186889648438e+00) (17, -2.61600303649902343750e+00) (18, -5.37833869457244873047e-01) (19, -1.56082201004028320312e+00) (20, -1.07996654510498046875e+01) (21, 3.68590736389160156250e+00) (22, -5.58501577377319335938e+00) (23, 8.98416996002197265625e+00) (24, -1.08296270370483398438e+01) (25, 1.57341980934143066406e+00) (0, -7.76423692703247070312e-01) (1, -9.41501736640930175781e-01) (2, -1.11635327339172363281e+00) (3, -2.78092074394226074219e+00) (4, -1.33977384567260742188e+01) (5, 7.95491027832031250000e+00) (6, 7.81606495380401611328e-01) (7, -9.79654550552368164062e-01) (8, -1.11105465888977050781e+00) (9, 4.19221758842468261719e-01) (10, 1.78040668368339538574e-01) (11, 5.76434195041656494141e-01) (12, -1.43086266517639160156e+00) (13, -2.19235563278198242188e+00) (14, 3.53140044212341308594e+00) (15, -6.43236112594604492188e+00) (16, -3.21729421615600585938e+00) (17, -7.14062643051147460938e+00) (18, -2.76944369077682495117e-01) (19, 3.94889640808105468750e+00) (20, 3.54592585563659667969e+00) (21, 1.69513034820556640625e+01) (22, 8.01225566864013671875e+00) (23, -4.37663841247558593750e+00) (24, 2.40206480026245117188e+00) (25, 5.25618267059326171875e+00) (0, 4.66210953891277313232e-03) (1, -4.09227043390274047852e-01) (2, -7.57075130939483642578e-01) (3, -3.13403338193893432617e-01) (4, 7.94804239273071289062e+00) (5, 2.13257122039794921875e+00) (6, -1.04771506786346435547e+00) (7, -1.20967590808868408203e+00) (8, -2.03811693191528320312e+00) (9, -9.18648958206176757812e-01) (10, 5.16564726829528808594e-01) (11, -4.71107912063598632812e+00) (12, -3.23832321166992187500e+00) (13, -8.15011024475097656250e-01) (14, -2.37618744373321533203e-01) (15, 5.97718477249145507812e-01) (16, 7.64695525169372558594e-01) (17, -5.51716089248657226562e-01) (18, -4.67144578695297241211e-01) (19, 3.70518922805786132812e+00) (20, -3.67680501937866210938e+00) (21, -2.29649806022644042969e+00) (22, -4.49525356292724609375e+00) (23, 2.43889403343200683594e+00) (24, -3.48747909069061279297e-01) (25, 2.48788928985595703125e+00) (0, -1.07100737094879150391e+00) (1, -1.00670373439788818359e+00) (2, -6.79429173469543457031e-01) (3, -1.65420126914978027344e+00) (4, -3.33899784088134765625e+00) (5, 7.97363817691802978516e-01) (6, -5.77815398573875427246e-02) (7, -7.88837492465972900391e-01) (8, -4.22887372970581054688e+00) (9, -2.10007691383361816406e+00) (10, -4.94121170043945312500e+00) (11, -2.33881974220275878906e+00) (12, -1.80718946456909179688e+00) (13, 1.47977256774902343750e+00) (14, 1.01617646217346191406e+00) (15, 2.20497703552246093750e+00) (16, 1.44039845466613769531e+00) (17, 1.11665832996368408203e+00) (18, 5.60457646846771240234e-01) (19, -4.65748500823974609375e+00) (20, 7.11565256118774414062e+00) (21, 2.18453407287597656250e+00) (22, 6.07299757003784179688e+00) (23, 1.47858505249023437500e+01) (24, 1.26503095626831054688e+01) (25, 4.06398057937622070312e+00) (0, 2.57772564888000488281e-01) (1, -1.52247115969657897949e-01) (2, -5.34318745136260986328e-01) (3, -3.10299366712570190430e-01) (4, -2.01913237571716308594e+00) (5, -3.62476277351379394531e+00) (6, -2.07654237747192382812e+00) (7, -6.52440667152404785156e-01) (8, -1.13783431053161621094e+00) (9, -9.95753169059753417969e-01) (10, -4.37858372926712036133e-01) (11, 4.82200622558593750000e+00) (12, -4.06096607446670532227e-01) (13, -1.35849392414093017578e+00) (14, -2.61904907226562500000e+00) (15, 8.57979106903076171875e+00) (16, -5.21256637573242187500e+00) (17, 1.67518901824951171875e+00) (18, 2.68715977668762207031e+00) (19, 4.11318683624267578125e+00) (20, 3.63154381513595581055e-01) (21, 6.88800573348999023438e+00) (22, -2.62773251533508300781e+00) (23, 4.69753170013427734375e+00) (24, -5.16015768051147460938e-01) (25, 7.39179563522338867188e+00) (0, -1.74120402336120605469e+00) (1, -1.00272142887115478516e+00) (2, -7.18318521976470947266e-01) (3, -4.55489933490753173828e-01) (4, -1.06275205612182617188e+01) (5, -2.02501964569091796875e+00) (6, -1.22691541910171508789e-01) (7, -6.93647146224975585938e-01) (8, -9.59055900573730468750e-01) (9, -3.23399496078491210938e+00) (10, -4.00893896818161010742e-01) (11, 2.95812845230102539062e+00) (12, -1.77143514156341552734e-01) (13, 2.16769027709960937500e+00) (14, -2.78009772300720214844e-01) (15, -4.16957235336303710938e+00) (16, -1.33081591129302978516e+00) (17, 3.51000189781188964844e+00) (18, 7.02707672119140625000e+00) (19, 2.37023878097534179688e+00) (20, 6.45374917984008789062e+00) (21, 3.39483547210693359375e+00) (22, 4.32444334030151367188e+00) (23, 1.69752407073974609375e+01) (24, 1.46325492858886718750e+01) (25, 3.53837680816650390625e+00) (0, -3.20359617471694946289e-01) (1, -2.33552530407905578613e-01) (2, -9.99152541160583496094e-01) (3, -6.21230459213256835938e+00) (4, 1.37477517127990722656e+00) (5, 1.69632124900817871094e+00) (6, -2.56755828857421875000e+00) (7, -9.70688939094543457031e-01) (8, -9.52864527702331542969e-01) (9, -8.80372107028961181641e-01) (10, 2.03894782066345214844e+00) (11, -1.01508721709251403809e-01) (12, -4.09016942977905273438e+00) (13, -6.19024112820625305176e-02) (14, 5.33226013183593750000e-01) (15, 2.14162275195121765137e-01) (16, -2.91459393501281738281e+00) (17, 4.78525869548320770264e-02) (18, -1.53536949157714843750e+01) (19, -1.18794429302215576172e+00) (20, 2.12826347351074218750e+00) (21, 5.19372797012329101562e+00) (22, -1.02318918704986572266e+00) (23, 1.49486989974975585938e+01) (24, 1.02451777458190917969e+00) (25, 1.93529582023620605469e+00) (0, 2.36612603068351745605e-01) (1, -1.03038683533668518066e-01) (2, -3.63330751657485961914e-01) (3, -8.37491154670715332031e-02) (4, 2.35482573509216308594e+00) (5, -1.04535293579101562500e+01) (6, 2.22057986259460449219e+00) (7, -4.22274678945541381836e-01) (8, -5.89938163757324218750e-01) (9, -4.48646396398544311523e-01) (10, 9.36327815055847167969e-01) (11, 3.38893818855285644531e+00) (12, -1.42459642887115478516e+00) (13, -4.70026206970214843750e+00) (14, -2.28464078903198242188e+00) (15, 8.67708969116210937500e+00) (16, -3.13053917884826660156e+00) (17, 1.34665668010711669922e+00) (18, 1.24280776977539062500e+01) (19, -3.45761370658874511719e+00) (20, 4.43037891387939453125e+00) (21, 3.89916330575942993164e-01) (22, -1.79716598987579345703e+00) (23, 3.10820913314819335938e+00) (24, -4.77031707763671875000e-01) (25, 2.62548065185546875000e+00) (0, 1.43510654568672180176e-01) (1, 1.61727383732795715332e-01) (2, 1.07644386589527130127e-01) (3, 5.32485961914062500000e+00) (4, -2.88881731033325195312e+00) (5, 4.52511262893676757812e+00) (6, 4.60722595453262329102e-01) (7, -1.90339475870132446289e-01) (8, -3.95555138587951660156e-01) (9, -8.63762140274047851562e-01) (10, -4.30698776245117187500e+00) (11, 2.34940028190612792969e+00) (12, -1.49569916725158691406e+00) (13, 1.14503073692321777344e+00) (14, 3.85864591598510742188e+00) (15, -2.06568489074707031250e+01) (16, -6.21847391128540039062e+00) (17, -3.81151008605957031250e+00) (18, -3.58664941787719726562e+00) (19, 5.59460783004760742188e+00) (20, 7.62411022186279296875e+00) (21, 3.95722293853759765625e+00) (22, 4.54542541503906250000e+00) (23, 7.11041259765625000000e+00) (24, 1.21411609649658203125e+00) (25, 4.57551145553588867188e+00) (0, 9.89041253924369812012e-02) (1, 1.49766221642494201660e-01) (2, -1.20529733598232269287e-01) (3, -1.84554219245910644531e-01) (4, 1.75329101085662841797e+00) (5, 2.44060635566711425781e+00) (6, -1.39381420612335205078e+00) (7, -3.16457927227020263672e-01) (8, 7.75905847549438476562e-01) (9, -5.36889791488647460938e-01) (10, 1.89247238636016845703e+00) (11, -9.83778953552246093750e-01) (12, -1.61629712581634521484e+00) (13, -9.56637442111968994141e-01) (14, -1.17709815502166748047e+00) (15, -2.05701065063476562500e+01) (16, 4.73723602294921875000e+00) (17, -5.88347673416137695312e-01) (18, -2.54852700233459472656e+00) (19, 7.34383010864257812500e+00) (20, -2.17970871925354003906e+00) (21, -2.47959804534912109375e+00) (22, -4.04571294784545898438e+00) (23, -1.89399087429046630859e+00) (24, -3.66305708885192871094e+00) (25, 2.39556598663330078125e+00) (0, -5.00462150573730468750e+00) (1, -1.02236402034759521484e+00) (2, -1.18298029899597167969e+00) (3, -1.36418962478637695312e+00) (4, -8.26919019222259521484e-01) (5, 2.09275674819946289062e+00) (6, -1.91447961330413818359e+00) (7, -1.01691758632659912109e+00) (8, -1.45947456359863281250e+00) (9, -4.57239001989364624023e-01) (10, -1.85663974285125732422e+00) (11, -2.69526076316833496094e+00) (12, 7.68634462356567382812e+00) (13, 7.31001281738281250000e+00) (14, 3.07832431793212890625e+00) (15, -3.29545450210571289062e+00) (16, -8.49734401702880859375e+00) (17, 4.17648017406463623047e-01) (18, 6.55819082260131835938e+00) (19, 1.12913303077220916748e-01) (20, 1.90562474727630615234e+00) (21, 3.05481266975402832031e+00) (22, 1.09480581283569335938e+01) (23, 6.55742835998535156250e+00) (24, 5.38900136947631835938e+00) (25, 9.73561000823974609375e+00) (26, -8.49645233154296875000e+00) (27, -3.42832899093627929688e+00) (28, -4.64678859710693359375e+00) (29, -6.04796028137207031250e+00) (30, -1.94897234439849853516e+00) (31, -2.83241629600524902344e+00) (32, -1.96415686607360839844e+00) (33, -4.51241493225097656250e+00) (34, -5.72771644592285156250e+00) (35, -5.41428089141845703125e+00) (36, -1.15457124710083007812e+01) (37, -5.19902181625366210938e+00) (38, 2.57123203277587890625e+01) 
