FANN_FLO_2.1
num_layers=3
learning_rate=0.700000
connection_rate=1.000000
network_type=0
learning_momentum=0.000000
training_algorithm=2
train_error_function=1
train_stop_function=0
cascade_output_change_fraction=0.010000
quickprop_decay=-0.000100
quickprop_mu=1.750000
rprop_increase_factor=1.200000
rprop_decrease_factor=0.500000
rprop_delta_min=0.000000
rprop_delta_max=50.000000
rprop_delta_zero=0.100000
cascade_output_stagnation_epochs=12
cascade_candidate_change_fraction=0.010000
cascade_candidate_stagnation_epochs=12
cascade_max_out_epochs=150
cascade_min_out_epochs=50
cascade_max_cand_epochs=150
cascade_min_cand_epochs=50
cascade_num_candidate_groups=2
bit_fail_limit=3.49999994039535522461e-01
cascade_candidate_limit=1.00000000000000000000e+03
cascade_weight_multiplier=4.00000005960464477539e-01
cascade_activation_functions_count=10
cascade_activation_functions=3 5 7 8 10 11 14 15 16 17 
cascade_activation_steepnesses_count=4
cascade_activation_steepnesses=2.50000000000000000000e-01 5.00000000000000000000e-01 7.50000000000000000000e-01 1.00000000000000000000e+00 
layer_sizes=18 9 2 
scale_included=1
scale_mean_in=429.571289 108.544365 97.753738 0.514042 0.949210 81.106682 12.906281 32.608177 721.898315 1783.589233 126.363907 599.383850 955.251221 0.304913 3.711616 1.339245 0.071384 
scale_deviation_in=166.095428 67.662308 50.705292 0.062249 0.026629 99.068771 13.634377 57.865894 362.533203 989.250366 79.506485 302.951721 580.946899 0.852729 0.578512 0.106586 0.118201 
scale_new_min_in=0.000000 0.000000 0.000000 0.000000 0.000000 0.000000 0.000000 0.000000 0.000000 0.000000 0.000000 0.000000 0.000000 0.000000 0.000000 0.000000 0.000000 
scale_factor_in=0.500000 0.500000 0.500000 0.500000 0.500000 0.500000 0.500000 0.500000 0.500000 0.500000 0.500000 0.500000 0.500000 0.500000 0.500000 0.500000 0.500000 
scale_mean_out=0.000000 
scale_deviation_out=1.000000 
scale_new_min_out=-1.000000 
scale_factor_out=1.000000 
neurons (num_inputs, activation_function, activation_steepness)=(0, 0, 0.00000000000000000000e+00) (0, 0, 0.00000000000000000000e+00) (0, 0, 0.00000000000000000000e+00) (0, 0, 0.00000000000000000000e+00) (0, 0, 0.00000000000000000000e+00) (0, 0, 0.00000000000000000000e+00) (0, 0, 0.00000000000000000000e+00) (0, 0, 0.00000000000000000000e+00) (0, 0, 0.00000000000000000000e+00) (0, 0, 0.00000000000000000000e+00) (0, 0, 0.00000000000000000000e+00) (0, 0, 0.00000000000000000000e+00) (0, 0, 0.00000000000000000000e+00) (0, 0, 0.00000000000000000000e+00) (0, 0, 0.00000000000000000000e+00) (0, 0, 0.00000000000000000000e+00) (0, 0, 0.00000000000000000000e+00) (0, 0, 0.00000000000000000000e+00) (18, 3, 5.00000000000000000000e-01) (18, 3, 5.00000000000000000000e-01) (18, 3, 5.00000000000000000000e-01) (18, 3, 5.00000000000000000000e-01) (18, 3, 5.00000000000000000000e-01) (18, 3, 5.00000000000000000000e-01) (18, 3, 5.00000000000000000000e-01) (18, 3, 5.00000000000000000000e-01) (0, 3, 0.00000000000000000000e+00) (9, 15, 5.00000000000000000000e-01) (0, 15, 0.00000000000000000000e+00) 
connections (connected_to_neuron, weight)=(0, -6.73477053642272949219e-01) (1, -4.33078706264495849609e-01) (2, -1.71831774711608886719e+00) (3, 1.04075944423675537109e+00) (4, -1.39215421676635742188e+00) (5, 9.09886264801025390625e+00) (6, 9.03818905353546142578e-01) (7, -3.66058444976806640625e+00) (8, 1.37848806381225585938e+00) (9, 1.75527656078338623047e+00) (10, -1.59615468978881835938e+00) (11, -1.93146097660064697266e+00) (12, 4.33006191253662109375e+00) (13, -3.69404517114162445068e-02) (14, -3.11395120620727539062e+00) (15, -1.66179978847503662109e+00) (16, -2.32411766052246093750e+00) (17, -3.96973443031311035156e+00) (0, -3.34276795387268066406e+00) (1, -1.34365963935852050781e+00) (2, 4.05268669128417968750e-01) (3, -5.06597423553466796875e+00) (4, 3.64019647240638732910e-02) (5, -1.42363941669464111328e+00) (6, -2.74530935287475585938e+00) (7, -2.86744737625122070312e+00) (8, -9.86469909548759460449e-02) (9, 2.62865161895751953125e+00) (10, -8.82919073104858398438e-01) (11, -1.70858442783355712891e+00) (12, -1.42513692378997802734e+00) (13, 1.16463871002197265625e+01) (14, -6.47974348068237304688e+00) (15, 5.52897071838378906250e+00) (16, -5.00466012954711914062e+00) (17, 2.10502586364746093750e+01) (0, 3.80926203727722167969e+00) (1, -6.57739579677581787109e-01) (2, 1.97855603694915771484e+00) (3, -6.17278814315795898438e-01) (4, 1.22379398345947265625e+00) (5, -9.27379798889160156250e+00) (6, 1.17653921246528625488e-01) (7, 2.50690817832946777344e-01) (8, 4.48079884052276611328e-01) (9, 1.38927802443504333496e-01) (10, 8.39468955993652343750e-01) (11, 1.27768528461456298828e+00) (12, -2.41085648536682128906e+00) (13, 9.72758680582046508789e-02) (14, 5.75826358795166015625e+00) (15, -7.07062005996704101562e-01) (16, 3.20961451530456542969e+00) (17, 2.46773743629455566406e+00) (0, -7.94418525695800781250e+00) (1, -1.06768481433391571045e-01) (2, 4.85772430896759033203e-01) (3, 1.84398472309112548828e+00) (4, -2.23338675498962402344e+00) (5, 3.94581270217895507812e+00) (6, 2.10578799247741699219e+00) (7, -1.57610386610031127930e-01) (8, 4.71513830125331878662e-02) (9, 5.09659409523010253906e-01) (10, -2.45219874382019042969e+00) (11, 4.28742647171020507812e+00) (12, -4.94201469421386718750e+00) (13, -1.21882632374763488770e-01) (14, -5.51058101654052734375e+00) (15, -1.95458877086639404297e+00) (16, -4.11435985565185546875e+00) (17, 4.45713512599468231201e-02) (0, -1.16962099075317382812e+00) (1, -2.45107007026672363281e+00) (2, -8.48735570907592773438e-01) (3, -2.70116353034973144531e+00) (4, -5.15908527374267578125e+00) (5, 1.23594558238983154297e+00) (6, -3.88066649436950683594e+00) (7, -3.10122323036193847656e+00) (8, -5.32764339447021484375e+00) (9, -9.22933995723724365234e-01) (10, -1.21559464931488037109e+00) (11, -1.24331164360046386719e+00) (12, 5.88874435424804687500e+00) (13, 8.76806926727294921875e+00) (14, -9.77835297584533691406e-01) (15, -2.14203977584838867188e+00) (16, -2.55064320564270019531e+00) (17, 2.26044769287109375000e+01) (0, -8.88580441474914550781e-01) (1, -4.78317451477050781250e+00) (2, 2.31106549501419067383e-01) (3, -1.56882085800170898438e+01) (4, -6.28688907623291015625e+00) (5, 1.53721347451210021973e-01) (6, -7.61152207851409912109e-02) (7, -3.62513184547424316406e+00) (8, 3.07029098272323608398e-01) (9, 7.53539979457855224609e-01) (10, 6.00605106353759765625e+00) (11, 2.28856825828552246094e+00) (12, -1.61140384674072265625e+01) (13, 4.01694221496582031250e+01) (14, 3.53742218017578125000e+01) (15, -2.54826247692108154297e-01) (16, -1.71321182250976562500e+01) (17, 5.20671463012695312500e+01) (0, 2.13275051116943359375e+00) (1, -1.31513524055480957031e+00) (2, 3.57403188943862915039e-01) (3, -1.01424055099487304688e+01) (4, -8.50818252563476562500e+00) (5, 1.81307268142700195312e+00) (6, -1.18264198303222656250e+00) (7, -1.32622900009155273438e+01) (8, -1.67754821777343750000e+01) (9, 9.74718853831291198730e-02) (10, -6.46654546260833740234e-01) (11, -6.97308111190795898438e+00) (12, -1.33433437347412109375e+00) (13, 7.40050048828125000000e+01) (14, 4.61935997009277343750e+00) (15, 1.11841859817504882812e+01) (16, -9.58914661407470703125e+00) (17, 3.65875816345214843750e+01) (0, -6.37131500244140625000e+00) (1, -1.79688882827758789062e+00) (2, -1.11334884166717529297e+00) (3, 6.80641746520996093750e+00) (4, 4.66135787963867187500e+00) (5, 3.41817903518676757812e+00) (6, -3.12611007690429687500e+00) (7, -2.00481104850769042969e+00) (8, -2.54201143980026245117e-01) (9, 2.23808661103248596191e-01) (10, -1.52005395889282226562e+01) (11, -7.14666128158569335938e-01) (12, -4.56936597824096679688e+00) (13, 5.17290878295898437500e+01) (14, 3.64232711791992187500e+01) (15, 9.55378818511962890625e+00) (16, -7.40360403060913085938e+00) (17, 2.16202507019042968750e+01) (18, 7.04612135887145996094e-02) (19, 5.63814997673034667969e-01) (20, 1.06767046451568603516e+00) (21, 9.80994045734405517578e-01) (22, 8.36829841136932373047e-01) (23, 7.60441422462463378906e-01) (24, 7.28528022766113281250e-01) (25, 7.91440725326538085938e-01) (26, -1.61348974704742431641e+00) 
